digraph Tree {
node [shape=box, fontname="helvetica"] ;
edge [fontname="helvetica"] ;
0 [label="description <= 14545.5\ngini = 0.092\nsamples = 12516\nvalue = [11914, 602]"] ;
1 [label="location <= 3017.5\ngini = 0.069\nsamples = 12327\nvalue = [11885, 442]"] ;
0 -> 1 [labeldistance=2.5, labelangle=45, headlabel="True"] ;
2 [label="has_company_logo <= 0.5\ngini = 0.065\nsamples = 12299\nvalue = [11885, 414]"] ;
1 -> 2 ;
3 [label="company_profile <= 12.0\ngini = 0.186\nsamples = 2370\nvalue = [2124, 246]"] ;
2 -> 3 ;
4 [label="description <= 8385.5\ngini = 0.25\nsamples = 1651\nvalue = [1409, 242]"] ;
3 -> 4 ;
5 [label="has_questions <= 0.5\ngini = 0.3\nsamples = 1198\nvalue = [978, 220]"] ;
4 -> 5 ;
6 [label="location <= 90.5\ngini = 0.365\nsamples = 765\nvalue = [581, 184]"] ;
5 -> 6 ;
7 [label="title <= 10111.5\ngini = 0.194\nsamples = 221\nvalue = [197, 24]"] ;
6 -> 7 ;
8 [label="required_education <= 10.0\ngini = 0.174\nsamples = 218\nvalue = [197, 21]"] ;
7 -> 8 ;
9 [label="title <= 943.5\ngini = 0.16\nsamples = 216\nvalue = [197, 19]"] ;
8 -> 9 ;
10 [label="description <= 139.5\ngini = 0.026\nsamples = 76\nvalue = [75, 1]"] ;
9 -> 10 ;
11 [label="description <= 114.0\ngini = 0.165\nsamples = 11\nvalue = [10, 1]"] ;
10 -> 11 ;
12 [label="gini = 0.0\nsamples = 10\nvalue = [10, 0]"] ;
11 -> 12 ;
13 [label="gini = 0.0\nsamples = 1\nvalue = [0, 1]"] ;
11 -> 13 ;
14 [label="gini = 0.0\nsamples = 65\nvalue = [65, 0]"] ;
10 -> 14 ;
15 [label="title <= 1104.5\ngini = 0.224\nsamples = 140\nvalue = [122, 18]"] ;
9 -> 15 ;
16 [label="industry <= 10.0\ngini = 0.5\nsamples = 6\nvalue = [3, 3]"] ;
15 -> 16 ;
17 [label="location <= 43.5\ngini = 0.375\nsamples = 4\nvalue = [1, 3]"] ;
16 -> 17 ;
18 [label="location <= 25.5\ngini = 0.5\nsamples = 2\nvalue = [1, 1]"] ;
17 -> 18 ;
19 [label="gini = 0.0\nsamples = 1\nvalue = [0, 1]"] ;
18 -> 19 ;
20 [label="gini = 0.0\nsamples = 1\nvalue = [1, 0]"] ;
18 -> 20 ;
21 [label="gini = 0.0\nsamples = 2\nvalue = [0, 2]"] ;
17 -> 21 ;
22 [label="gini = 0.0\nsamples = 2\nvalue = [2, 0]"] ;
16 -> 22 ;
23 [label="salary_range <= 174.5\ngini = 0.199\nsamples = 134\nvalue = [119, 15]"] ;
15 -> 23 ;
24 [label="function <= 3.5\ngini = 0.158\nsamples = 116\nvalue = [106, 10]"] ;
23 -> 24 ;
25 [label="industry <= 3.5\ngini = 0.245\nsamples = 70\nvalue = [60, 10]"] ;
24 -> 25 ;
26 [label="employment_type <= 3.0\ngini = 0.135\nsamples = 55\nvalue = [51, 4]"] ;
25 -> 26 ;
27 [label="telecommuting <= 0.5\ngini = 0.111\nsamples = 51\nvalue = [48, 3]"] ;
26 -> 27 ;
28 [label="description <= 3597.5\ngini = 0.081\nsamples = 47\nvalue = [45, 2]"] ;
27 -> 28 ;
29 [label="description <= 3390.5\ngini = 0.198\nsamples = 18\nvalue = [16, 2]"] ;
28 -> 29 ;
30 [label="location <= 17.0\ngini = 0.111\nsamples = 17\nvalue = [16, 1]"] ;
29 -> 30 ;
31 [label="benefits <= 632.0\ngini = 0.444\nsamples = 3\nvalue = [2, 1]"] ;
30 -> 31 ;
32 [label="gini = 0.0\nsamples = 1\nvalue = [0, 1]"] ;
31 -> 32 ;
33 [label="gini = 0.0\nsamples = 2\nvalue = [2, 0]"] ;
31 -> 33 ;
34 [label="gini = 0.0\nsamples = 14\nvalue = [14, 0]"] ;
30 -> 34 ;
35 [label="gini = 0.0\nsamples = 1\nvalue = [0, 1]"] ;
29 -> 35 ;
36 [label="gini = 0.0\nsamples = 29\nvalue = [29, 0]"] ;
28 -> 36 ;
37 [label="description <= 4790.5\ngini = 0.375\nsamples = 4\nvalue = [3, 1]"] ;
27 -> 37 ;
38 [label="gini = 0.0\nsamples = 3\nvalue = [3, 0]"] ;
37 -> 38 ;
39 [label="gini = 0.0\nsamples = 1\nvalue = [0, 1]"] ;
37 -> 39 ;
40 [label="location <= 41.0\ngini = 0.375\nsamples = 4\nvalue = [3, 1]"] ;
26 -> 40 ;
41 [label="gini = 0.0\nsamples = 3\nvalue = [3, 0]"] ;
40 -> 41 ;
42 [label="gini = 0.0\nsamples = 1\nvalue = [0, 1]"] ;
40 -> 42 ;
43 [label="industry <= 9.0\ngini = 0.48\nsamples = 15\nvalue = [9, 6]"] ;
25 -> 43 ;
44 [label="gini = 0.0\nsamples = 5\nvalue = [0, 5]"] ;
43 -> 44 ;
45 [label="salary_range <= 12.0\ngini = 0.18\nsamples = 10\nvalue = [9, 1]"] ;
43 -> 45 ;
46 [label="gini = 0.0\nsamples = 9\nvalue = [9, 0]"] ;
45 -> 46 ;
47 [label="gini = 0.0\nsamples = 1\nvalue = [0, 1]"] ;
45 -> 47 ;
48 [label="gini = 0.0\nsamples = 46\nvalue = [46, 0]"] ;
24 -> 48 ;
49 [label="department <= 95.5\ngini = 0.401\nsamples = 18\nvalue = [13, 5]"] ;
23 -> 49 ;
50 [label="function <= 2.0\ngini = 0.231\nsamples = 15\nvalue = [13, 2]"] ;
49 -> 50 ;
51 [label="gini = 0.0\nsamples = 1\nvalue = [0, 1]"] ;
50 -> 51 ;
52 [label="description <= 3009.0\ngini = 0.133\nsamples = 14\nvalue = [13, 1]"] ;
50 -> 52 ;
53 [label="salary_range <= 254.0\ngini = 0.5\nsamples = 2\nvalue = [1, 1]"] ;
52 -> 53 ;
54 [label="gini = 0.0\nsamples = 1\nvalue = [1, 0]"] ;
53 -> 54 ;
55 [label="gini = 0.0\nsamples = 1\nvalue = [0, 1]"] ;
53 -> 55 ;
56 [label="gini = 0.0\nsamples = 12\nvalue = [12, 0]"] ;
52 -> 56 ;
57 [label="gini = 0.0\nsamples = 3\nvalue = [0, 3]"] ;
49 -> 57 ;
58 [label="gini = 0.0\nsamples = 2\nvalue = [0, 2]"] ;
8 -> 58 ;
59 [label="gini = 0.0\nsamples = 3\nvalue = [0, 3]"] ;
7 -> 59 ;
60 [label="location <= 132.5\ngini = 0.415\nsamples = 544\nvalue = [384, 160]"] ;
6 -> 60 ;
61 [label="industry <= 9.0\ngini = 0.463\nsamples = 74\nvalue = [27, 47]"] ;
60 -> 61 ;
62 [label="benefits <= 372.5\ngini = 0.437\nsamples = 31\nvalue = [21, 10]"] ;
61 -> 62 ;
63 [label="employment_type <= 3.0\ngini = 0.499\nsamples = 19\nvalue = [10, 9]"] ;
62 -> 63 ;
64 [label="title <= 145.0\ngini = 0.48\nsamples = 15\nvalue = [6, 9]"] ;
63 -> 64 ;
65 [label="gini = 0.0\nsamples = 2\nvalue = [2, 0]"] ;
64 -> 65 ;
66 [label="industry <= 2.0\ngini = 0.426\nsamples = 13\nvalue = [4, 9]"] ;
64 -> 66 ;
67 [label="description <= 1409.5\ngini = 0.5\nsamples = 8\nvalue = [4, 4]"] ;
66 -> 67 ;
68 [label="gini = 0.0\nsamples = 2\nvalue = [0, 2]"] ;
67 -> 68 ;
69 [label="title <= 3408.5\ngini = 0.444\nsamples = 6\nvalue = [4, 2]"] ;
67 -> 69 ;
70 [label="gini = 0.0\nsamples = 3\nvalue = [3, 0]"] ;
69 -> 70 ;
71 [label="required_experience <= 2.0\ngini = 0.444\nsamples = 3\nvalue = [1, 2]"] ;
69 -> 71 ;
72 [label="gini = 0.0\nsamples = 1\nvalue = [1, 0]"] ;
71 -> 72 ;
73 [label="gini = 0.0\nsamples = 2\nvalue = [0, 2]"] ;
71 -> 73 ;
74 [label="gini = 0.0\nsamples = 5\nvalue = [0, 5]"] ;
66 -> 74 ;
75 [label="gini = 0.0\nsamples = 4\nvalue = [4, 0]"] ;
63 -> 75 ;
76 [label="benefits <= 3322.0\ngini = 0.153\nsamples = 12\nvalue = [11, 1]"] ;
62 -> 76 ;
77 [label="gini = 0.0\nsamples = 11\nvalue = [11, 0]"] ;
76 -> 77 ;
78 [label="gini = 0.0\nsamples = 1\nvalue = [0, 1]"] ;
76 -> 78 ;
79 [label="industry <= 15.5\ngini = 0.24\nsamples = 43\nvalue = [6, 37]"] ;
61 -> 79 ;
80 [label="gini = 0.0\nsamples = 29\nvalue = [0, 29]"] ;
79 -> 80 ;
81 [label="required_experience <= 3.5\ngini = 0.49\nsamples = 14\nvalue = [6, 8]"] ;
79 -> 81 ;
82 [label="requirements <= 2570.5\ngini = 0.397\nsamples = 11\nvalue = [3, 8]"] ;
81 -> 82 ;
83 [label="required_education <= 2.0\ngini = 0.48\nsamples = 5\nvalue = [3, 2]"] ;
82 -> 83 ;
84 [label="description <= 5731.0\ngini = 0.444\nsamples = 3\nvalue = [1, 2]"] ;
83 -> 84 ;
85 [label="gini = 0.0\nsamples = 2\nvalue = [0, 2]"] ;
84 -> 85 ;
86 [label="gini = 0.0\nsamples = 1\nvalue = [1, 0]"] ;
84 -> 86 ;
87 [label="gini = 0.0\nsamples = 2\nvalue = [2, 0]"] ;
83 -> 87 ;
88 [label="gini = 0.0\nsamples = 6\nvalue = [0, 6]"] ;
82 -> 88 ;
89 [label="gini = 0.0\nsamples = 3\nvalue = [3, 0]"] ;
81 -> 89 ;
90 [label="location <= 1565.0\ngini = 0.365\nsamples = 470\nvalue = [357, 113]"] ;
60 -> 90 ;
91 [label="required_education <= 10.0\ngini = 0.298\nsamples = 363\nvalue = [297, 66]"] ;
90 -> 91 ;
92 [label="required_experience <= 1.5\ngini = 0.28\nsamples = 356\nvalue = [296, 60]"] ;
91 -> 92 ;
93 [label="gini = 0.0\nsamples = 4\nvalue = [0, 4]"] ;
92 -> 93 ;
94 [label="description <= 8376.0\ngini = 0.268\nsamples = 352\nvalue = [296, 56]"] ;
92 -> 94 ;
95 [label="title <= 4073.5\ngini = 0.258\nsamples = 349\nvalue = [296, 53]"] ;
94 -> 95 ;
96 [label="title <= 875.5\ngini = 0.215\nsamples = 285\nvalue = [250, 35]"] ;
95 -> 96 ;
97 [label="description <= 92.5\ngini = 0.092\nsamples = 83\nvalue = [79, 4]"] ;
96 -> 97 ;
98 [label="gini = 0.0\nsamples = 1\nvalue = [0, 1]"] ;
97 -> 98 ;
99 [label="department <= 310.5\ngini = 0.07\nsamples = 82\nvalue = [79, 3]"] ;
97 -> 99 ;
100 [label="description <= 547.5\ngini = 0.049\nsamples = 80\nvalue = [78, 2]"] ;
99 -> 100 ;
101 [label="description <= 506.0\ngini = 0.137\nsamples = 27\nvalue = [25, 2]"] ;
100 -> 101 ;
102 [label="description <= 456.5\ngini = 0.074\nsamples = 26\nvalue = [25, 1]"] ;
101 -> 102 ;
103 [label="gini = 0.0\nsamples = 21\nvalue = [21, 0]"] ;
102 -> 103 ;
104 [label="title <= 427.0\ngini = 0.32\nsamples = 5\nvalue = [4, 1]"] ;
102 -> 104 ;
105 [label="gini = 0.0\nsamples = 1\nvalue = [0, 1]"] ;
104 -> 105 ;
106 [label="gini = 0.0\nsamples = 4\nvalue = [4, 0]"] ;
104 -> 106 ;
107 [label="gini = 0.0\nsamples = 1\nvalue = [0, 1]"] ;
101 -> 107 ;
108 [label="gini = 0.0\nsamples = 53\nvalue = [53, 0]"] ;
100 -> 108 ;
109 [label="requirements <= 3362.0\ngini = 0.5\nsamples = 2\nvalue = [1, 1]"] ;
99 -> 109 ;
110 [label="gini = 0.0\nsamples = 1\nvalue = [0, 1]"] ;
109 -> 110 ;
111 [label="gini = 0.0\nsamples = 1\nvalue = [1, 0]"] ;
109 -> 111 ;
112 [label="title <= 895.5\ngini = 0.26\nsamples = 202\nvalue = [171, 31]"] ;
96 -> 112 ;
113 [label="gini = 0.0\nsamples = 4\nvalue = [0, 4]"] ;
112 -> 113 ;
114 [label="employment_type <= 2.5\ngini = 0.236\nsamples = 198\nvalue = [171, 27]"] ;
112 -> 114 ;
115 [label="department <= 10.0\ngini = 0.205\nsamples = 181\nvalue = [160, 21]"] ;
114 -> 115 ;
116 [label="location <= 198.0\ngini = 0.246\nsamples = 139\nvalue = [119, 20]"] ;
115 -> 116 ;
117 [label="gini = 0.0\nsamples = 1\nvalue = [0, 1]"] ;
116 -> 117 ;
118 [label="function <= 3.5\ngini = 0.237\nsamples = 138\nvalue = [119, 19]"] ;
116 -> 118 ;
119 [label="title <= 2620.0\ngini = 0.32\nsamples = 70\nvalue = [56, 14]"] ;
118 -> 119 ;
120 [label="title <= 2454.5\ngini = 0.413\nsamples = 48\nvalue = [34, 14]"] ;
119 -> 120 ;
121 [label="title <= 1106.0\ngini = 0.351\nsamples = 44\nvalue = [34, 10]"] ;
120 -> 121 ;
122 [label="title <= 1088.5\ngini = 0.49\nsamples = 14\nvalue = [8, 6]"] ;
121 -> 122 ;
123 [label="salary_range <= 156.5\ngini = 0.32\nsamples = 10\nvalue = [8, 2]"] ;
122 -> 123 ;
124 [label="industry <= 2.5\ngini = 0.198\nsamples = 9\nvalue = [8, 1]"] ;
123 -> 124 ;
125 [label="gini = 0.0\nsamples = 6\nvalue = [6, 0]"] ;
124 -> 125 ;
126 [label="requirements <= 447.5\ngini = 0.444\nsamples = 3\nvalue = [2, 1]"] ;
124 -> 126 ;
127 [label="gini = 0.0\nsamples = 1\nvalue = [0, 1]"] ;
126 -> 127 ;
128 [label="gini = 0.0\nsamples = 2\nvalue = [2, 0]"] ;
126 -> 128 ;
129 [label="gini = 0.0\nsamples = 1\nvalue = [0, 1]"] ;
123 -> 129 ;
130 [label="gini = 0.0\nsamples = 4\nvalue = [0, 4]"] ;
122 -> 130 ;
131 [label="title <= 2224.0\ngini = 0.231\nsamples = 30\nvalue = [26, 4]"] ;
121 -> 131 ;
132 [label="industry <= 19.5\ngini = 0.08\nsamples = 24\nvalue = [23, 1]"] ;
131 -> 132 ;
133 [label="gini = 0.0\nsamples = 21\nvalue = [21, 0]"] ;
132 -> 133 ;
134 [label="title <= 1306.0\ngini = 0.444\nsamples = 3\nvalue = [2, 1]"] ;
132 -> 134 ;
135 [label="gini = 0.0\nsamples = 2\nvalue = [2, 0]"] ;
134 -> 135 ;
136 [label="gini = 0.0\nsamples = 1\nvalue = [0, 1]"] ;
134 -> 136 ;
137 [label="requirements <= 2238.0\ngini = 0.5\nsamples = 6\nvalue = [3, 3]"] ;
131 -> 137 ;
138 [label="gini = 0.0\nsamples = 2\nvalue = [0, 2]"] ;
137 -> 138 ;
139 [label="title <= 2300.5\ngini = 0.375\nsamples = 4\nvalue = [3, 1]"] ;
137 -> 139 ;
140 [label="gini = 0.0\nsamples = 1\nvalue = [0, 1]"] ;
139 -> 140 ;
141 [label="gini = 0.0\nsamples = 3\nvalue = [3, 0]"] ;
139 -> 141 ;
142 [label="gini = 0.0\nsamples = 4\nvalue = [0, 4]"] ;
120 -> 142 ;
143 [label="gini = 0.0\nsamples = 22\nvalue = [22, 0]"] ;
119 -> 143 ;
144 [label="industry <= 11.0\ngini = 0.136\nsamples = 68\nvalue = [63, 5]"] ;
118 -> 144 ;
145 [label="gini = 0.0\nsamples = 49\nvalue = [49, 0]"] ;
144 -> 145 ;
146 [label="function <= 8.0\ngini = 0.388\nsamples = 19\nvalue = [14, 5]"] ;
144 -> 146 ;
147 [label="industry <= 29.0\ngini = 0.165\nsamples = 11\nvalue = [10, 1]"] ;
146 -> 147 ;
148 [label="requirements <= 2906.0\ngini = 0.444\nsamples = 3\nvalue = [2, 1]"] ;
147 -> 148 ;
149 [label="gini = 0.0\nsamples = 2\nvalue = [2, 0]"] ;
148 -> 149 ;
150 [label="gini = 0.0\nsamples = 1\nvalue = [0, 1]"] ;
148 -> 150 ;
151 [label="gini = 0.0\nsamples = 8\nvalue = [8, 0]"] ;
147 -> 151 ;
152 [label="title <= 1776.5\ngini = 0.5\nsamples = 8\nvalue = [4, 4]"] ;
146 -> 152 ;
153 [label="gini = 0.0\nsamples = 2\nvalue = [2, 0]"] ;
152 -> 153 ;
154 [label="required_experience <= 6.0\ngini = 0.444\nsamples = 6\nvalue = [2, 4]"] ;
152 -> 154 ;
155 [label="description <= 3415.5\ngini = 0.32\nsamples = 5\nvalue = [1, 4]"] ;
154 -> 155 ;
156 [label="industry <= 22.0\ngini = 0.5\nsamples = 2\nvalue = [1, 1]"] ;
155 -> 156 ;
157 [label="gini = 0.0\nsamples = 1\nvalue = [0, 1]"] ;
156 -> 157 ;
158 [label="gini = 0.0\nsamples = 1\nvalue = [1, 0]"] ;
156 -> 158 ;
159 [label="gini = 0.0\nsamples = 3\nvalue = [0, 3]"] ;
155 -> 159 ;
160 [label="gini = 0.0\nsamples = 1\nvalue = [1, 0]"] ;
154 -> 160 ;
161 [label="benefits <= 1328.0\ngini = 0.046\nsamples = 42\nvalue = [41, 1]"] ;
115 -> 161 ;
162 [label="gini = 0.0\nsamples = 38\nvalue = [38, 0]"] ;
161 -> 162 ;
163 [label="description <= 3304.0\ngini = 0.375\nsamples = 4\nvalue = [3, 1]"] ;
161 -> 163 ;
164 [label="gini = 0.0\nsamples = 1\nvalue = [0, 1]"] ;
163 -> 164 ;
165 [label="gini = 0.0\nsamples = 3\nvalue = [3, 0]"] ;
163 -> 165 ;
166 [label="description <= 2870.0\ngini = 0.457\nsamples = 17\nvalue = [11, 6]"] ;
114 -> 166 ;
167 [label="title <= 1216.5\ngini = 0.198\nsamples = 9\nvalue = [8, 1]"] ;
166 -> 167 ;
168 [label="requirements <= 440.0\ngini = 0.5\nsamples = 2\nvalue = [1, 1]"] ;
167 -> 168 ;
169 [label="gini = 0.0\nsamples = 1\nvalue = [0, 1]"] ;
168 -> 169 ;
170 [label="gini = 0.0\nsamples = 1\nvalue = [1, 0]"] ;
168 -> 170 ;
171 [label="gini = 0.0\nsamples = 7\nvalue = [7, 0]"] ;
167 -> 171 ;
172 [label="location <= 1176.5\ngini = 0.469\nsamples = 8\nvalue = [3, 5]"] ;
166 -> 172 ;
173 [label="gini = 0.0\nsamples = 5\nvalue = [0, 5]"] ;
172 -> 173 ;
174 [label="gini = 0.0\nsamples = 3\nvalue = [3, 0]"] ;
172 -> 174 ;
175 [label="description <= 5260.0\ngini = 0.404\nsamples = 64\nvalue = [46, 18]"] ;
95 -> 175 ;
176 [label="industry <= 17.0\ngini = 0.463\nsamples = 11\nvalue = [4, 7]"] ;
175 -> 176 ;
177 [label="location <= 931.0\ngini = 0.219\nsamples = 8\nvalue = [1, 7]"] ;
176 -> 177 ;
178 [label="gini = 0.0\nsamples = 7\nvalue = [0, 7]"] ;
177 -> 178 ;
179 [label="gini = 0.0\nsamples = 1\nvalue = [1, 0]"] ;
177 -> 179 ;
180 [label="gini = 0.0\nsamples = 3\nvalue = [3, 0]"] ;
176 -> 180 ;
181 [label="requirements <= 5185.5\ngini = 0.329\nsamples = 53\nvalue = [42, 11]"] ;
175 -> 181 ;
182 [label="requirements <= 5074.5\ngini = 0.415\nsamples = 34\nvalue = [24, 10]"] ;
181 -> 182 ;
183 [label="location <= 572.5\ngini = 0.375\nsamples = 32\nvalue = [24, 8]"] ;
182 -> 183 ;
184 [label="title <= 5983.5\ngini = 0.117\nsamples = 16\nvalue = [15, 1]"] ;
183 -> 184 ;
185 [label="gini = 0.0\nsamples = 10\nvalue = [10, 0]"] ;
184 -> 185 ;
186 [label="title <= 6005.0\ngini = 0.278\nsamples = 6\nvalue = [5, 1]"] ;
184 -> 186 ;
187 [label="gini = 0.0\nsamples = 1\nvalue = [0, 1]"] ;
186 -> 187 ;
188 [label="gini = 0.0\nsamples = 5\nvalue = [5, 0]"] ;
186 -> 188 ;
189 [label="industry <= 2.5\ngini = 0.492\nsamples = 16\nvalue = [9, 7]"] ;
183 -> 189 ;
190 [label="description <= 7195.5\ngini = 0.346\nsamples = 9\nvalue = [7, 2]"] ;
189 -> 190 ;
191 [label="gini = 0.0\nsamples = 7\nvalue = [7, 0]"] ;
190 -> 191 ;
192 [label="gini = 0.0\nsamples = 2\nvalue = [0, 2]"] ;
190 -> 192 ;
193 [label="salary_range <= 443.0\ngini = 0.408\nsamples = 7\nvalue = [2, 5]"] ;
189 -> 193 ;
194 [label="gini = 0.0\nsamples = 5\nvalue = [0, 5]"] ;
193 -> 194 ;
195 [label="gini = 0.0\nsamples = 2\nvalue = [2, 0]"] ;
193 -> 195 ;
196 [label="gini = 0.0\nsamples = 2\nvalue = [0, 2]"] ;
182 -> 196 ;
197 [label="function <= 2.0\ngini = 0.1\nsamples = 19\nvalue = [18, 1]"] ;
181 -> 197 ;
198 [label="required_education <= 2.0\ngini = 0.5\nsamples = 2\nvalue = [1, 1]"] ;
197 -> 198 ;
199 [label="gini = 0.0\nsamples = 1\nvalue = [1, 0]"] ;
198 -> 199 ;
200 [label="gini = 0.0\nsamples = 1\nvalue = [0, 1]"] ;
198 -> 200 ;
201 [label="gini = 0.0\nsamples = 17\nvalue = [17, 0]"] ;
197 -> 201 ;
202 [label="gini = 0.0\nsamples = 3\nvalue = [0, 3]"] ;
94 -> 202 ;
203 [label="requirements <= 5978.0\ngini = 0.245\nsamples = 7\nvalue = [1, 6]"] ;
91 -> 203 ;
204 [label="gini = 0.0\nsamples = 6\nvalue = [0, 6]"] ;
203 -> 204 ;
205 [label="gini = 0.0\nsamples = 1\nvalue = [1, 0]"] ;
203 -> 205 ;
206 [label="description <= 5027.0\ngini = 0.493\nsamples = 107\nvalue = [60, 47]"] ;
90 -> 206 ;
207 [label="title <= 597.5\ngini = 0.231\nsamples = 30\nvalue = [4, 26]"] ;
206 -> 207 ;
208 [label="gini = 0.0\nsamples = 2\nvalue = [2, 0]"] ;
207 -> 208 ;
209 [label="employment_type <= 3.0\ngini = 0.133\nsamples = 28\nvalue = [2, 26]"] ;
207 -> 209 ;
210 [label="title <= 4447.0\ngini = 0.071\nsamples = 27\nvalue = [1, 26]"] ;
209 -> 210 ;
211 [label="gini = 0.0\nsamples = 25\nvalue = [0, 25]"] ;
210 -> 211 ;
212 [label="description <= 2885.5\ngini = 0.5\nsamples = 2\nvalue = [1, 1]"] ;
210 -> 212 ;
213 [label="gini = 0.0\nsamples = 1\nvalue = [1, 0]"] ;
212 -> 213 ;
214 [label="gini = 0.0\nsamples = 1\nvalue = [0, 1]"] ;
212 -> 214 ;
215 [label="gini = 0.0\nsamples = 1\nvalue = [1, 0]"] ;
209 -> 215 ;
216 [label="function <= 9.5\ngini = 0.397\nsamples = 77\nvalue = [56, 21]"] ;
206 -> 216 ;
217 [label="industry <= 35.5\ngini = 0.462\nsamples = 58\nvalue = [37, 21]"] ;
216 -> 217 ;
218 [label="industry <= 15.0\ngini = 0.498\nsamples = 43\nvalue = [23, 20]"] ;
217 -> 218 ;
219 [label="benefits <= 2718.5\ngini = 0.43\nsamples = 32\nvalue = [22, 10]"] ;
218 -> 219 ;
220 [label="employment_type <= 3.0\ngini = 0.491\nsamples = 23\nvalue = [13, 10]"] ;
219 -> 220 ;
221 [label="title <= 5258.0\ngini = 0.5\nsamples = 20\nvalue = [10, 10]"] ;
220 -> 221 ;
222 [label="industry <= 2.0\ngini = 0.459\nsamples = 14\nvalue = [9, 5]"] ;
221 -> 222 ;
223 [label="requirements <= 2188.0\ngini = 0.496\nsamples = 11\nvalue = [6, 5]"] ;
222 -> 223 ;
224 [label="title <= 4760.0\ngini = 0.32\nsamples = 5\nvalue = [4, 1]"] ;
223 -> 224 ;
225 [label="gini = 0.0\nsamples = 3\nvalue = [3, 0]"] ;
224 -> 225 ;
226 [label="location <= 1899.5\ngini = 0.5\nsamples = 2\nvalue = [1, 1]"] ;
224 -> 226 ;
227 [label="gini = 0.0\nsamples = 1\nvalue = [0, 1]"] ;
226 -> 227 ;
228 [label="gini = 0.0\nsamples = 1\nvalue = [1, 0]"] ;
226 -> 228 ;
229 [label="title <= 2389.0\ngini = 0.444\nsamples = 6\nvalue = [2, 4]"] ;
223 -> 229 ;
230 [label="gini = 0.0\nsamples = 1\nvalue = [1, 0]"] ;
229 -> 230 ;
231 [label="description <= 6176.0\ngini = 0.32\nsamples = 5\nvalue = [1, 4]"] ;
229 -> 231 ;
232 [label="gini = 0.0\nsamples = 4\nvalue = [0, 4]"] ;
231 -> 232 ;
233 [label="gini = 0.0\nsamples = 1\nvalue = [1, 0]"] ;
231 -> 233 ;
234 [label="gini = 0.0\nsamples = 3\nvalue = [3, 0]"] ;
222 -> 234 ;
235 [label="description <= 7596.0\ngini = 0.278\nsamples = 6\nvalue = [1, 5]"] ;
221 -> 235 ;
236 [label="gini = 0.0\nsamples = 5\nvalue = [0, 5]"] ;
235 -> 236 ;
237 [label="gini = 0.0\nsamples = 1\nvalue = [1, 0]"] ;
235 -> 237 ;
238 [label="gini = 0.0\nsamples = 3\nvalue = [3, 0]"] ;
220 -> 238 ;
239 [label="gini = 0.0\nsamples = 9\nvalue = [9, 0]"] ;
219 -> 239 ;
240 [label="title <= 2575.0\ngini = 0.165\nsamples = 11\nvalue = [1, 10]"] ;
218 -> 240 ;
241 [label="gini = 0.0\nsamples = 1\nvalue = [1, 0]"] ;
240 -> 241 ;
242 [label="gini = 0.0\nsamples = 10\nvalue = [0, 10]"] ;
240 -> 242 ;
243 [label="required_experience <= 4.5\ngini = 0.124\nsamples = 15\nvalue = [14, 1]"] ;
217 -> 243 ;
244 [label="gini = 0.0\nsamples = 13\nvalue = [13, 0]"] ;
243 -> 244 ;
245 [label="location <= 1966.5\ngini = 0.5\nsamples = 2\nvalue = [1, 1]"] ;
243 -> 245 ;
246 [label="gini = 0.0\nsamples = 1\nvalue = [0, 1]"] ;
245 -> 246 ;
247 [label="gini = 0.0\nsamples = 1\nvalue = [1, 0]"] ;
245 -> 247 ;
248 [label="gini = 0.0\nsamples = 19\nvalue = [19, 0]"] ;
216 -> 248 ;
249 [label="industry <= 26.0\ngini = 0.152\nsamples = 433\nvalue = [397, 36]"] ;
5 -> 249 ;
250 [label="title <= 2436.5\ngini = 0.11\nsamples = 344\nvalue = [324, 20]"] ;
249 -> 250 ;
251 [label="gini = 0.0\nsamples = 165\nvalue = [165, 0]"] ;
250 -> 251 ;
252 [label="description <= 2875.0\ngini = 0.198\nsamples = 179\nvalue = [159, 20]"] ;
250 -> 252 ;
253 [label="gini = 0.0\nsamples = 2\nvalue = [0, 2]"] ;
252 -> 253 ;
254 [label="benefits <= 1303.5\ngini = 0.183\nsamples = 177\nvalue = [159, 18]"] ;
252 -> 254 ;
255 [label="department <= 402.5\ngini = 0.287\nsamples = 92\nvalue = [76, 16]"] ;
254 -> 255 ;
256 [label="location <= 257.5\ngini = 0.224\nsamples = 78\nvalue = [68, 10]"] ;
255 -> 256 ;
257 [label="location <= 126.5\ngini = 0.375\nsamples = 36\nvalue = [27, 9]"] ;
256 -> 257 ;
258 [label="industry <= 17.0\ngini = 0.087\nsamples = 22\nvalue = [21, 1]"] ;
257 -> 258 ;
259 [label="gini = 0.0\nsamples = 19\nvalue = [19, 0]"] ;
258 -> 259 ;
260 [label="requirements <= 4044.0\ngini = 0.444\nsamples = 3\nvalue = [2, 1]"] ;
258 -> 260 ;
261 [label="gini = 0.0\nsamples = 1\nvalue = [0, 1]"] ;
260 -> 261 ;
262 [label="gini = 0.0\nsamples = 2\nvalue = [2, 0]"] ;
260 -> 262 ;
263 [label="function <= 4.5\ngini = 0.49\nsamples = 14\nvalue = [6, 8]"] ;
257 -> 263 ;
264 [label="location <= 190.5\ngini = 0.397\nsamples = 11\nvalue = [3, 8]"] ;
263 -> 264 ;
265 [label="required_education <= 3.5\ngini = 0.219\nsamples = 8\nvalue = [1, 7]"] ;
264 -> 265 ;
266 [label="gini = 0.0\nsamples = 7\nvalue = [0, 7]"] ;
265 -> 266 ;
267 [label="gini = 0.0\nsamples = 1\nvalue = [1, 0]"] ;
265 -> 267 ;
268 [label="location <= 238.5\ngini = 0.444\nsamples = 3\nvalue = [2, 1]"] ;
264 -> 268 ;
269 [label="gini = 0.0\nsamples = 2\nvalue = [2, 0]"] ;
268 -> 269 ;
270 [label="gini = 0.0\nsamples = 1\nvalue = [0, 1]"] ;
268 -> 270 ;
271 [label="gini = 0.0\nsamples = 3\nvalue = [3, 0]"] ;
263 -> 271 ;
272 [label="salary_range <= 344.5\ngini = 0.046\nsamples = 42\nvalue = [41, 1]"] ;
256 -> 272 ;
273 [label="gini = 0.0\nsamples = 40\nvalue = [40, 0]"] ;
272 -> 273 ;
274 [label="requirements <= 1798.5\ngini = 0.5\nsamples = 2\nvalue = [1, 1]"] ;
272 -> 274 ;
275 [label="gini = 0.0\nsamples = 1\nvalue = [1, 0]"] ;
274 -> 275 ;
276 [label="gini = 0.0\nsamples = 1\nvalue = [0, 1]"] ;
274 -> 276 ;
277 [label="department <= 457.5\ngini = 0.49\nsamples = 14\nvalue = [8, 6]"] ;
255 -> 277 ;
278 [label="gini = 0.0\nsamples = 5\nvalue = [0, 5]"] ;
277 -> 278 ;
279 [label="requirements <= 1320.0\ngini = 0.198\nsamples = 9\nvalue = [8, 1]"] ;
277 -> 279 ;
280 [label="gini = 0.0\nsamples = 1\nvalue = [0, 1]"] ;
279 -> 280 ;
281 [label="gini = 0.0\nsamples = 8\nvalue = [8, 0]"] ;
279 -> 281 ;
282 [label="department <= 847.5\ngini = 0.046\nsamples = 85\nvalue = [83, 2]"] ;
254 -> 282 ;
283 [label="function <= 8.5\ngini = 0.024\nsamples = 84\nvalue = [83, 1]"] ;
282 -> 283 ;
284 [label="gini = 0.0\nsamples = 74\nvalue = [74, 0]"] ;
283 -> 284 ;
285 [label="title <= 3523.5\ngini = 0.18\nsamples = 10\nvalue = [9, 1]"] ;
283 -> 285 ;
286 [label="description <= 3797.0\ngini = 0.444\nsamples = 3\nvalue = [2, 1]"] ;
285 -> 286 ;
287 [label="gini = 0.0\nsamples = 2\nvalue = [2, 0]"] ;
286 -> 287 ;
288 [label="gini = 0.0\nsamples = 1\nvalue = [0, 1]"] ;
286 -> 288 ;
289 [label="gini = 0.0\nsamples = 7\nvalue = [7, 0]"] ;
285 -> 289 ;
290 [label="gini = 0.0\nsamples = 1\nvalue = [0, 1]"] ;
282 -> 290 ;
291 [label="industry <= 28.0\ngini = 0.295\nsamples = 89\nvalue = [73, 16]"] ;
249 -> 291 ;
292 [label="title <= 1005.5\ngini = 0.18\nsamples = 10\nvalue = [1, 9]"] ;
291 -> 292 ;
293 [label="gini = 0.0\nsamples = 1\nvalue = [1, 0]"] ;
292 -> 293 ;
294 [label="gini = 0.0\nsamples = 9\nvalue = [0, 9]"] ;
292 -> 294 ;
295 [label="telecommuting <= 0.5\ngini = 0.162\nsamples = 79\nvalue = [72, 7]"] ;
291 -> 295 ;
296 [label="function <= 11.5\ngini = 0.142\nsamples = 78\nvalue = [72, 6]"] ;
295 -> 296 ;
297 [label="benefits <= 2979.5\ngini = 0.062\nsamples = 62\nvalue = [60, 2]"] ;
296 -> 297 ;
298 [label="location <= 10.0\ngini = 0.033\nsamples = 59\nvalue = [58, 1]"] ;
297 -> 298 ;
299 [label="title <= 1818.5\ngini = 0.245\nsamples = 7\nvalue = [6, 1]"] ;
298 -> 299 ;
300 [label="gini = 0.0\nsamples = 1\nvalue = [0, 1]"] ;
299 -> 300 ;
301 [label="gini = 0.0\nsamples = 6\nvalue = [6, 0]"] ;
299 -> 301 ;
302 [label="gini = 0.0\nsamples = 52\nvalue = [52, 0]"] ;
298 -> 302 ;
303 [label="required_experience <= 4.0\ngini = 0.444\nsamples = 3\nvalue = [2, 1]"] ;
297 -> 303 ;
304 [label="gini = 0.0\nsamples = 2\nvalue = [2, 0]"] ;
303 -> 304 ;
305 [label="gini = 0.0\nsamples = 1\nvalue = [0, 1]"] ;
303 -> 305 ;
306 [label="requirements <= 3776.0\ngini = 0.375\nsamples = 16\nvalue = [12, 4]"] ;
296 -> 306 ;
307 [label="salary_range <= 129.0\ngini = 0.5\nsamples = 8\nvalue = [4, 4]"] ;
306 -> 307 ;
308 [label="location <= 1385.0\ngini = 0.32\nsamples = 5\nvalue = [4, 1]"] ;
307 -> 308 ;
309 [label="gini = 0.0\nsamples = 4\nvalue = [4, 0]"] ;
308 -> 309 ;
310 [label="gini = 0.0\nsamples = 1\nvalue = [0, 1]"] ;
308 -> 310 ;
311 [label="gini = 0.0\nsamples = 3\nvalue = [0, 3]"] ;
307 -> 311 ;
312 [label="gini = 0.0\nsamples = 8\nvalue = [8, 0]"] ;
306 -> 312 ;
313 [label="gini = 0.0\nsamples = 1\nvalue = [0, 1]"] ;
295 -> 313 ;
314 [label="location <= 17.5\ngini = 0.092\nsamples = 453\nvalue = [431, 22]"] ;
4 -> 314 ;
315 [label="location <= 14.5\ngini = 0.346\nsamples = 54\nvalue = [42, 12]"] ;
314 -> 315 ;
316 [label="requirements <= 894.0\ngini = 0.194\nsamples = 46\nvalue = [41, 5]"] ;
315 -> 316 ;
317 [label="description <= 9952.0\ngini = 0.463\nsamples = 11\nvalue = [7, 4]"] ;
316 -> 317 ;
318 [label="gini = 0.0\nsamples = 2\nvalue = [0, 2]"] ;
317 -> 318 ;
319 [label="location <= 10.0\ngini = 0.346\nsamples = 9\nvalue = [7, 2]"] ;
317 -> 319 ;
320 [label="gini = 0.0\nsamples = 4\nvalue = [4, 0]"] ;
319 -> 320 ;
321 [label="title <= 9621.5\ngini = 0.48\nsamples = 5\nvalue = [3, 2]"] ;
319 -> 321 ;
322 [label="description <= 11184.5\ngini = 0.444\nsamples = 3\nvalue = [1, 2]"] ;
321 -> 322 ;
323 [label="gini = 0.0\nsamples = 1\nvalue = [1, 0]"] ;
322 -> 323 ;
324 [label="gini = 0.0\nsamples = 2\nvalue = [0, 2]"] ;
322 -> 324 ;
325 [label="gini = 0.0\nsamples = 2\nvalue = [2, 0]"] ;
321 -> 325 ;
326 [label="employment_type <= 3.5\ngini = 0.056\nsamples = 35\nvalue = [34, 1]"] ;
316 -> 326 ;
327 [label="gini = 0.0\nsamples = 27\nvalue = [27, 0]"] ;
326 -> 327 ;
328 [label="title <= 9228.5\ngini = 0.219\nsamples = 8\nvalue = [7, 1]"] ;
326 -> 328 ;
329 [label="gini = 0.0\nsamples = 6\nvalue = [6, 0]"] ;
328 -> 329 ;
330 [label="title <= 10311.5\ngini = 0.5\nsamples = 2\nvalue = [1, 1]"] ;
328 -> 330 ;
331 [label="gini = 0.0\nsamples = 1\nvalue = [0, 1]"] ;
330 -> 331 ;
332 [label="gini = 0.0\nsamples = 1\nvalue = [1, 0]"] ;
330 -> 332 ;
333 [label="required_experience <= 3.5\ngini = 0.219\nsamples = 8\nvalue = [1, 7]"] ;
315 -> 333 ;
334 [label="gini = 0.0\nsamples = 7\nvalue = [0, 7]"] ;
333 -> 334 ;
335 [label="gini = 0.0\nsamples = 1\nvalue = [1, 0]"] ;
333 -> 335 ;
336 [label="salary_range <= 854.5\ngini = 0.049\nsamples = 399\nvalue = [389, 10]"] ;
314 -> 336 ;
337 [label="title <= 40.5\ngini = 0.044\nsamples = 398\nvalue = [389, 9]"] ;
336 -> 337 ;
338 [label="gini = 0.0\nsamples = 1\nvalue = [0, 1]"] ;
337 -> 338 ;
339 [label="location <= 2982.5\ngini = 0.039\nsamples = 397\nvalue = [389, 8]"] ;
337 -> 339 ;
340 [label="requirements <= 11661.5\ngini = 0.035\nsamples = 393\nvalue = [386, 7]"] ;
339 -> 340 ;
341 [label="salary_range <= 795.0\ngini = 0.03\nsamples = 389\nvalue = [383, 6]"] ;
340 -> 341 ;
342 [label="location <= 2746.0\ngini = 0.026\nsamples = 379\nvalue = [374, 5]"] ;
341 -> 342 ;
343 [label="description <= 9957.0\ngini = 0.017\nsamples = 345\nvalue = [342, 3]"] ;
342 -> 343 ;
344 [label="title <= 7772.5\ngini = 0.051\nsamples = 77\nvalue = [75, 2]"] ;
343 -> 344 ;
345 [label="salary_range <= 373.0\ngini = 0.026\nsamples = 76\nvalue = [75, 1]"] ;
344 -> 345 ;
346 [label="gini = 0.0\nsamples = 65\nvalue = [65, 0]"] ;
345 -> 346 ;
347 [label="salary_range <= 425.5\ngini = 0.165\nsamples = 11\nvalue = [10, 1]"] ;
345 -> 347 ;
348 [label="gini = 0.0\nsamples = 1\nvalue = [0, 1]"] ;
347 -> 348 ;
349 [label="gini = 0.0\nsamples = 10\nvalue = [10, 0]"] ;
347 -> 349 ;
350 [label="gini = 0.0\nsamples = 1\nvalue = [0, 1]"] ;
344 -> 350 ;
351 [label="function <= 6.5\ngini = 0.007\nsamples = 268\nvalue = [267, 1]"] ;
343 -> 351 ;
352 [label="gini = 0.0\nsamples = 208\nvalue = [208, 0]"] ;
351 -> 352 ;
353 [label="function <= 7.5\ngini = 0.033\nsamples = 60\nvalue = [59, 1]"] ;
351 -> 353 ;
354 [label="location <= 290.0\ngini = 0.32\nsamples = 5\nvalue = [4, 1]"] ;
353 -> 354 ;
355 [label="gini = 0.0\nsamples = 1\nvalue = [0, 1]"] ;
354 -> 355 ;
356 [label="gini = 0.0\nsamples = 4\nvalue = [4, 0]"] ;
354 -> 356 ;
357 [label="gini = 0.0\nsamples = 55\nvalue = [55, 0]"] ;
353 -> 357 ;
358 [label="description <= 11970.5\ngini = 0.111\nsamples = 34\nvalue = [32, 2]"] ;
342 -> 358 ;
359 [label="gini = 0.0\nsamples = 1\nvalue = [0, 1]"] ;
358 -> 359 ;
360 [label="employment_type <= 3.5\ngini = 0.059\nsamples = 33\nvalue = [32, 1]"] ;
358 -> 360 ;
361 [label="gini = 0.0\nsamples = 27\nvalue = [27, 0]"] ;
360 -> 361 ;
362 [label="location <= 2866.5\ngini = 0.278\nsamples = 6\nvalue = [5, 1]"] ;
360 -> 362 ;
363 [label="gini = 0.0\nsamples = 4\nvalue = [4, 0]"] ;
362 -> 363 ;
364 [label="location <= 2927.5\ngini = 0.5\nsamples = 2\nvalue = [1, 1]"] ;
362 -> 364 ;
365 [label="gini = 0.0\nsamples = 1\nvalue = [0, 1]"] ;
364 -> 365 ;
366 [label="gini = 0.0\nsamples = 1\nvalue = [1, 0]"] ;
364 -> 366 ;
367 [label="description <= 13356.0\ngini = 0.18\nsamples = 10\nvalue = [9, 1]"] ;
341 -> 367 ;
368 [label="gini = 0.0\nsamples = 1\nvalue = [0, 1]"] ;
367 -> 368 ;
369 [label="gini = 0.0\nsamples = 9\nvalue = [9, 0]"] ;
367 -> 369 ;
370 [label="description <= 14408.0\ngini = 0.375\nsamples = 4\nvalue = [3, 1]"] ;
340 -> 370 ;
371 [label="gini = 0.0\nsamples = 1\nvalue = [0, 1]"] ;
370 -> 371 ;
372 [label="gini = 0.0\nsamples = 3\nvalue = [3, 0]"] ;
370 -> 372 ;
373 [label="requirements <= 3481.5\ngini = 0.375\nsamples = 4\nvalue = [3, 1]"] ;
339 -> 373 ;
374 [label="gini = 0.0\nsamples = 1\nvalue = [0, 1]"] ;
373 -> 374 ;
375 [label="gini = 0.0\nsamples = 3\nvalue = [3, 0]"] ;
373 -> 375 ;
376 [label="gini = 0.0\nsamples = 1\nvalue = [0, 1]"] ;
336 -> 376 ;
377 [label="required_experience <= 3.5\ngini = 0.011\nsamples = 719\nvalue = [715, 4]"] ;
3 -> 377 ;
378 [label="gini = 0.0\nsamples = 671\nvalue = [671, 0]"] ;
377 -> 378 ;
379 [label="department <= 50.0\ngini = 0.153\nsamples = 48\nvalue = [44, 4]"] ;
377 -> 379 ;
380 [label="gini = 0.0\nsamples = 36\nvalue = [36, 0]"] ;
379 -> 380 ;
381 [label="function <= 12.5\ngini = 0.444\nsamples = 12\nvalue = [8, 4]"] ;
379 -> 381 ;
382 [label="description <= 376.0\ngini = 0.198\nsamples = 9\nvalue = [8, 1]"] ;
381 -> 382 ;
383 [label="gini = 0.0\nsamples = 1\nvalue = [0, 1]"] ;
382 -> 383 ;
384 [label="gini = 0.0\nsamples = 8\nvalue = [8, 0]"] ;
382 -> 384 ;
385 [label="gini = 0.0\nsamples = 3\nvalue = [0, 3]"] ;
381 -> 385 ;
386 [label="salary_range <= 12.0\ngini = 0.033\nsamples = 9929\nvalue = [9761, 168]"] ;
2 -> 386 ;
387 [label="company_profile <= 209.5\ngini = 0.024\nsamples = 8585\nvalue = [8482, 103]"] ;
386 -> 387 ;
388 [label="required_education <= 6.5\ngini = 0.006\nsamples = 4232\nvalue = [4219, 13]"] ;
387 -> 388 ;
389 [label="department <= 15.5\ngini = 0.005\nsamples = 4163\nvalue = [4153, 10]"] ;
388 -> 389 ;
390 [label="benefits <= 1307.5\ngini = 0.002\nsamples = 3154\nvalue = [3151, 3]"] ;
389 -> 390 ;
391 [label="required_experience <= 2.5\ngini = 0.001\nsamples = 2424\nvalue = [2423, 1]"] ;
390 -> 391 ;
392 [label="requirements <= 12.0\ngini = 0.009\nsamples = 225\nvalue = [224, 1]"] ;
391 -> 392 ;
393 [label="location <= 85.0\ngini = 0.124\nsamples = 15\nvalue = [14, 1]"] ;
392 -> 393 ;
394 [label="gini = 0.0\nsamples = 10\nvalue = [10, 0]"] ;
393 -> 394 ;
395 [label="location <= 146.5\ngini = 0.32\nsamples = 5\nvalue = [4, 1]"] ;
393 -> 395 ;
396 [label="gini = 0.0\nsamples = 1\nvalue = [0, 1]"] ;
395 -> 396 ;
397 [label="gini = 0.0\nsamples = 4\nvalue = [4, 0]"] ;
395 -> 397 ;
398 [label="gini = 0.0\nsamples = 210\nvalue = [210, 0]"] ;
392 -> 398 ;
399 [label="gini = 0.0\nsamples = 2199\nvalue = [2199, 0]"] ;
391 -> 399 ;
400 [label="benefits <= 1315.5\ngini = 0.005\nsamples = 730\nvalue = [728, 2]"] ;
390 -> 400 ;
401 [label="gini = 0.0\nsamples = 1\nvalue = [0, 1]"] ;
400 -> 401 ;
402 [label="title <= 7648.0\ngini = 0.003\nsamples = 729\nvalue = [728, 1]"] ;
400 -> 402 ;
403 [label="gini = 0.0\nsamples = 493\nvalue = [493, 0]"] ;
402 -> 403 ;
404 [label="title <= 7651.0\ngini = 0.008\nsamples = 236\nvalue = [235, 1]"] ;
402 -> 404 ;
405 [label="gini = 0.0\nsamples = 1\nvalue = [0, 1]"] ;
404 -> 405 ;
406 [label="gini = 0.0\nsamples = 235\nvalue = [235, 0]"] ;
404 -> 406 ;
407 [label="department <= 21.0\ngini = 0.014\nsamples = 1009\nvalue = [1002, 7]"] ;
389 -> 407 ;
408 [label="department <= 19.5\ngini = 0.071\nsamples = 135\nvalue = [130, 5]"] ;
407 -> 408 ;
409 [label="benefits <= 4288.5\ngini = 0.015\nsamples = 131\nvalue = [130, 1]"] ;
408 -> 409 ;
410 [label="gini = 0.0\nsamples = 119\nvalue = [119, 0]"] ;
409 -> 410 ;
411 [label="benefits <= 4501.0\ngini = 0.153\nsamples = 12\nvalue = [11, 1]"] ;
409 -> 411 ;
412 [label="gini = 0.0\nsamples = 1\nvalue = [0, 1]"] ;
411 -> 412 ;
413 [label="gini = 0.0\nsamples = 11\nvalue = [11, 0]"] ;
411 -> 413 ;
414 [label="gini = 0.0\nsamples = 4\nvalue = [0, 4]"] ;
408 -> 414 ;
415 [label="title <= 146.0\ngini = 0.005\nsamples = 874\nvalue = [872, 2]"] ;
407 -> 415 ;
416 [label="title <= 144.0\ngini = 0.069\nsamples = 28\nvalue = [27, 1]"] ;
415 -> 416 ;
417 [label="gini = 0.0\nsamples = 27\nvalue = [27, 0]"] ;
416 -> 417 ;
418 [label="gini = 0.0\nsamples = 1\nvalue = [0, 1]"] ;
416 -> 418 ;
419 [label="location <= 1803.5\ngini = 0.002\nsamples = 846\nvalue = [845, 1]"] ;
415 -> 419 ;
420 [label="gini = 0.0\nsamples = 795\nvalue = [795, 0]"] ;
419 -> 420 ;
421 [label="location <= 1844.0\ngini = 0.038\nsamples = 51\nvalue = [50, 1]"] ;
419 -> 421 ;
422 [label="gini = 0.0\nsamples = 1\nvalue = [0, 1]"] ;
421 -> 422 ;
423 [label="gini = 0.0\nsamples = 50\nvalue = [50, 0]"] ;
421 -> 423 ;
424 [label="description <= 234.0\ngini = 0.083\nsamples = 69\nvalue = [66, 3]"] ;
388 -> 424 ;
425 [label="gini = 0.0\nsamples = 1\nvalue = [0, 1]"] ;
424 -> 425 ;
426 [label="location <= 1898.0\ngini = 0.057\nsamples = 68\nvalue = [66, 2]"] ;
424 -> 426 ;
427 [label="gini = 0.0\nsamples = 59\nvalue = [59, 0]"] ;
426 -> 427 ;
428 [label="location <= 2111.5\ngini = 0.346\nsamples = 9\nvalue = [7, 2]"] ;
426 -> 428 ;
429 [label="gini = 0.0\nsamples = 2\nvalue = [0, 2]"] ;
428 -> 429 ;
430 [label="gini = 0.0\nsamples = 7\nvalue = [7, 0]"] ;
428 -> 430 ;
431 [label="company_profile <= 210.5\ngini = 0.04\nsamples = 4353\nvalue = [4263, 90]"] ;
387 -> 431 ;
432 [label="gini = 0.0\nsamples = 23\nvalue = [0, 23]"] ;
431 -> 432 ;
433 [label="company_profile <= 224.5\ngini = 0.03\nsamples = 4330\nvalue = [4263, 67]"] ;
431 -> 433 ;
434 [label="company_profile <= 221.5\ngini = 0.223\nsamples = 164\nvalue = [143, 21]"] ;
433 -> 434 ;
435 [label="gini = 0.0\nsamples = 133\nvalue = [133, 0]"] ;
434 -> 435 ;
436 [label="location <= 178.5\ngini = 0.437\nsamples = 31\nvalue = [10, 21]"] ;
434 -> 436 ;
437 [label="gini = 0.0\nsamples = 21\nvalue = [0, 21]"] ;
436 -> 437 ;
438 [label="gini = 0.0\nsamples = 10\nvalue = [10, 0]"] ;
436 -> 438 ;
439 [label="company_profile <= 841.5\ngini = 0.022\nsamples = 4166\nvalue = [4120, 46]"] ;
433 -> 439 ;
440 [label="function <= 32.5\ngini = 0.006\nsamples = 2775\nvalue = [2767, 8]"] ;
439 -> 440 ;
441 [label="description <= 1083.5\ngini = 0.004\nsamples = 2750\nvalue = [2744, 6]"] ;
440 -> 441 ;
442 [label="description <= 1080.5\ngini = 0.024\nsamples = 166\nvalue = [164, 2]"] ;
441 -> 442 ;
443 [label="function <= 18.0\ngini = 0.012\nsamples = 165\nvalue = [164, 1]"] ;
442 -> 443 ;
444 [label="gini = 0.0\nsamples = 140\nvalue = [140, 0]"] ;
443 -> 444 ;
445 [label="title <= 629.0\ngini = 0.077\nsamples = 25\nvalue = [24, 1]"] ;
443 -> 445 ;
446 [label="company_profile <= 284.5\ngini = 0.32\nsamples = 5\nvalue = [4, 1]"] ;
445 -> 446 ;
447 [label="gini = 0.0\nsamples = 4\nvalue = [4, 0]"] ;
446 -> 447 ;
448 [label="gini = 0.0\nsamples = 1\nvalue = [0, 1]"] ;
446 -> 448 ;
449 [label="gini = 0.0\nsamples = 20\nvalue = [20, 0]"] ;
445 -> 449 ;
450 [label="gini = 0.0\nsamples = 1\nvalue = [0, 1]"] ;
442 -> 450 ;
451 [label="telecommuting <= 0.5\ngini = 0.003\nsamples = 2584\nvalue = [2580, 4]"] ;
441 -> 451 ;
452 [label="company_profile <= 293.5\ngini = 0.002\nsamples = 2476\nvalue = [2473, 3]"] ;
451 -> 452 ;
453 [label="company_profile <= 292.5\ngini = 0.009\nsamples = 447\nvalue = [445, 2]"] ;
452 -> 453 ;
454 [label="gini = 0.0\nsamples = 445\nvalue = [445, 0]"] ;
453 -> 454 ;
455 [label="gini = 0.0\nsamples = 2\nvalue = [0, 2]"] ;
453 -> 455 ;
456 [label="required_experience <= 4.5\ngini = 0.001\nsamples = 2029\nvalue = [2028, 1]"] ;
452 -> 456 ;
457 [label="gini = 0.0\nsamples = 1737\nvalue = [1737, 0]"] ;
456 -> 457 ;
458 [label="industry <= 1.5\ngini = 0.007\nsamples = 292\nvalue = [291, 1]"] ;
456 -> 458 ;
459 [label="location <= 71.5\ngini = 0.053\nsamples = 37\nvalue = [36, 1]"] ;
458 -> 459 ;
460 [label="location <= 61.0\ngini = 0.219\nsamples = 8\nvalue = [7, 1]"] ;
459 -> 460 ;
461 [label="gini = 0.0\nsamples = 7\nvalue = [7, 0]"] ;
460 -> 461 ;
462 [label="gini = 0.0\nsamples = 1\nvalue = [0, 1]"] ;
460 -> 462 ;
463 [label="gini = 0.0\nsamples = 29\nvalue = [29, 0]"] ;
459 -> 463 ;
464 [label="gini = 0.0\nsamples = 255\nvalue = [255, 0]"] ;
458 -> 464 ;
465 [label="company_profile <= 412.0\ngini = 0.018\nsamples = 108\nvalue = [107, 1]"] ;
451 -> 465 ;
466 [label="company_profile <= 404.0\ngini = 0.087\nsamples = 22\nvalue = [21, 1]"] ;
465 -> 466 ;
467 [label="gini = 0.0\nsamples = 21\nvalue = [21, 0]"] ;
466 -> 467 ;
468 [label="gini = 0.0\nsamples = 1\nvalue = [0, 1]"] ;
466 -> 468 ;
469 [label="gini = 0.0\nsamples = 86\nvalue = [86, 0]"] ;
465 -> 469 ;
470 [label="company_profile <= 606.0\ngini = 0.147\nsamples = 25\nvalue = [23, 2]"] ;
440 -> 470 ;
471 [label="gini = 0.0\nsamples = 17\nvalue = [17, 0]"] ;
470 -> 471 ;
472 [label="company_profile <= 608.5\ngini = 0.375\nsamples = 8\nvalue = [6, 2]"] ;
470 -> 472 ;
473 [label="gini = 0.0\nsamples = 2\nvalue = [0, 2]"] ;
472 -> 473 ;
474 [label="gini = 0.0\nsamples = 6\nvalue = [6, 0]"] ;
472 -> 474 ;
475 [label="company_profile <= 842.5\ngini = 0.053\nsamples = 1391\nvalue = [1353, 38]"] ;
439 -> 475 ;
476 [label="gini = 0.0\nsamples = 16\nvalue = [0, 16]"] ;
475 -> 476 ;
477 [label="description <= 1841.5\ngini = 0.031\nsamples = 1375\nvalue = [1353, 22]"] ;
475 -> 477 ;
478 [label="company_profile <= 1048.5\ngini = 0.444\nsamples = 3\nvalue = [1, 2]"] ;
477 -> 478 ;
479 [label="gini = 0.0\nsamples = 1\nvalue = [1, 0]"] ;
478 -> 479 ;
480 [label="gini = 0.0\nsamples = 2\nvalue = [0, 2]"] ;
478 -> 480 ;
481 [label="department <= 1292.0\ngini = 0.029\nsamples = 1372\nvalue = [1352, 20]"] ;
477 -> 481 ;
482 [label="department <= 124.0\ngini = 0.026\nsamples = 1365\nvalue = [1347, 18]"] ;
481 -> 482 ;
483 [label="salary_range <= 5.5\ngini = 0.012\nsamples = 1143\nvalue = [1136, 7]"] ;
482 -> 483 ;
484 [label="required_experience <= 6.5\ngini = 0.01\nsamples = 1137\nvalue = [1131, 6]"] ;
483 -> 484 ;
485 [label="description <= 8474.0\ngini = 0.007\nsamples = 1107\nvalue = [1103, 4]"] ;
484 -> 485 ;
486 [label="description <= 8451.5\ngini = 0.02\nsamples = 400\nvalue = [396, 4]"] ;
485 -> 486 ;
487 [label="industry <= 2.5\ngini = 0.015\nsamples = 399\nvalue = [396, 3]"] ;
486 -> 487 ;
488 [label="has_questions <= 0.5\ngini = 0.034\nsamples = 171\nvalue = [168, 3]"] ;
487 -> 488 ;
489 [label="requirements <= 5063.5\ngini = 0.075\nsamples = 77\nvalue = [74, 3]"] ;
488 -> 489 ;
490 [label="requirements <= 4958.5\ngini = 0.136\nsamples = 41\nvalue = [38, 3]"] ;
489 -> 490 ;
491 [label="location <= 364.0\ngini = 0.095\nsamples = 40\nvalue = [38, 2]"] ;
490 -> 491 ;
492 [label="gini = 0.0\nsamples = 26\nvalue = [26, 0]"] ;
491 -> 492 ;
493 [label="company_profile <= 1261.0\ngini = 0.245\nsamples = 14\nvalue = [12, 2]"] ;
491 -> 493 ;
494 [label="description <= 4249.5\ngini = 0.142\nsamples = 13\nvalue = [12, 1]"] ;
493 -> 494 ;
495 [label="title <= 3168.5\ngini = 0.375\nsamples = 4\nvalue = [3, 1]"] ;
494 -> 495 ;
496 [label="gini = 0.0\nsamples = 3\nvalue = [3, 0]"] ;
495 -> 496 ;
497 [label="gini = 0.0\nsamples = 1\nvalue = [0, 1]"] ;
495 -> 497 ;
498 [label="gini = 0.0\nsamples = 9\nvalue = [9, 0]"] ;
494 -> 498 ;
499 [label="gini = 0.0\nsamples = 1\nvalue = [0, 1]"] ;
493 -> 499 ;
500 [label="gini = 0.0\nsamples = 1\nvalue = [0, 1]"] ;
490 -> 500 ;
501 [label="gini = 0.0\nsamples = 36\nvalue = [36, 0]"] ;
489 -> 501 ;
502 [label="gini = 0.0\nsamples = 94\nvalue = [94, 0]"] ;
488 -> 502 ;
503 [label="gini = 0.0\nsamples = 228\nvalue = [228, 0]"] ;
487 -> 503 ;
504 [label="gini = 0.0\nsamples = 1\nvalue = [0, 1]"] ;
486 -> 504 ;
505 [label="gini = 0.0\nsamples = 707\nvalue = [707, 0]"] ;
485 -> 505 ;
506 [label="benefits <= 3834.0\ngini = 0.124\nsamples = 30\nvalue = [28, 2]"] ;
484 -> 506 ;
507 [label="gini = 0.0\nsamples = 23\nvalue = [23, 0]"] ;
506 -> 507 ;
508 [label="function <= 7.5\ngini = 0.408\nsamples = 7\nvalue = [5, 2]"] ;
506 -> 508 ;
509 [label="gini = 0.0\nsamples = 5\nvalue = [5, 0]"] ;
508 -> 509 ;
510 [label="gini = 0.0\nsamples = 2\nvalue = [0, 2]"] ;
508 -> 510 ;
511 [label="company_profile <= 1051.0\ngini = 0.278\nsamples = 6\nvalue = [5, 1]"] ;
483 -> 511 ;
512 [label="gini = 0.0\nsamples = 1\nvalue = [0, 1]"] ;
511 -> 512 ;
513 [label="gini = 0.0\nsamples = 5\nvalue = [5, 0]"] ;
511 -> 513 ;
514 [label="description <= 3721.5\ngini = 0.094\nsamples = 222\nvalue = [211, 11]"] ;
482 -> 514 ;
515 [label="requirements <= 3109.5\ngini = 0.426\nsamples = 13\nvalue = [9, 4]"] ;
514 -> 515 ;
516 [label="industry <= 5.5\ngini = 0.18\nsamples = 10\nvalue = [9, 1]"] ;
515 -> 516 ;
517 [label="title <= 2492.5\ngini = 0.5\nsamples = 2\nvalue = [1, 1]"] ;
516 -> 517 ;
518 [label="gini = 0.0\nsamples = 1\nvalue = [0, 1]"] ;
517 -> 518 ;
519 [label="gini = 0.0\nsamples = 1\nvalue = [1, 0]"] ;
517 -> 519 ;
520 [label="gini = 0.0\nsamples = 8\nvalue = [8, 0]"] ;
516 -> 520 ;
521 [label="gini = 0.0\nsamples = 3\nvalue = [0, 3]"] ;
515 -> 521 ;
522 [label="department <= 144.5\ngini = 0.065\nsamples = 209\nvalue = [202, 7]"] ;
514 -> 522 ;
523 [label="description <= 8610.5\ngini = 0.278\nsamples = 18\nvalue = [15, 3]"] ;
522 -> 523 ;
524 [label="employment_type <= 3.0\ngini = 0.375\nsamples = 4\nvalue = [1, 3]"] ;
523 -> 524 ;
525 [label="gini = 0.0\nsamples = 3\nvalue = [0, 3]"] ;
524 -> 525 ;
526 [label="gini = 0.0\nsamples = 1\nvalue = [1, 0]"] ;
524 -> 526 ;
527 [label="gini = 0.0\nsamples = 14\nvalue = [14, 0]"] ;
523 -> 527 ;
528 [label="description <= 5187.0\ngini = 0.041\nsamples = 191\nvalue = [187, 4]"] ;
522 -> 528 ;
529 [label="description <= 5139.5\ngini = 0.198\nsamples = 18\nvalue = [16, 2]"] ;
528 -> 529 ;
530 [label="industry <= 40.5\ngini = 0.111\nsamples = 17\nvalue = [16, 1]"] ;
529 -> 530 ;
531 [label="gini = 0.0\nsamples = 15\nvalue = [15, 0]"] ;
530 -> 531 ;
532 [label="function <= 5.5\ngini = 0.5\nsamples = 2\nvalue = [1, 1]"] ;
530 -> 532 ;
533 [label="gini = 0.0\nsamples = 1\nvalue = [1, 0]"] ;
532 -> 533 ;
534 [label="gini = 0.0\nsamples = 1\nvalue = [0, 1]"] ;
532 -> 534 ;
535 [label="gini = 0.0\nsamples = 1\nvalue = [0, 1]"] ;
529 -> 535 ;
536 [label="description <= 8459.5\ngini = 0.023\nsamples = 173\nvalue = [171, 2]"] ;
528 -> 536 ;
537 [label="description <= 8445.5\ngini = 0.063\nsamples = 61\nvalue = [59, 2]"] ;
536 -> 537 ;
538 [label="company_profile <= 1296.5\ngini = 0.033\nsamples = 60\nvalue = [59, 1]"] ;
537 -> 538 ;
539 [label="gini = 0.0\nsamples = 53\nvalue = [53, 0]"] ;
538 -> 539 ;
540 [label="description <= 7920.0\ngini = 0.245\nsamples = 7\nvalue = [6, 1]"] ;
538 -> 540 ;
541 [label="gini = 0.0\nsamples = 1\nvalue = [0, 1]"] ;
540 -> 541 ;
542 [label="gini = 0.0\nsamples = 6\nvalue = [6, 0]"] ;
540 -> 542 ;
543 [label="gini = 0.0\nsamples = 1\nvalue = [0, 1]"] ;
537 -> 543 ;
544 [label="gini = 0.0\nsamples = 112\nvalue = [112, 0]"] ;
536 -> 544 ;
545 [label="department <= 1294.0\ngini = 0.408\nsamples = 7\nvalue = [5, 2]"] ;
481 -> 545 ;
546 [label="gini = 0.0\nsamples = 2\nvalue = [0, 2]"] ;
545 -> 546 ;
547 [label="gini = 0.0\nsamples = 5\nvalue = [5, 0]"] ;
545 -> 547 ;
548 [label="department <= 91.0\ngini = 0.092\nsamples = 1344\nvalue = [1279, 65]"] ;
386 -> 548 ;
549 [label="salary_range <= 13.5\ngini = 0.043\nsamples = 990\nvalue = [968, 22]"] ;
548 -> 549 ;
550 [label="industry <= 10.5\ngini = 0.444\nsamples = 3\nvalue = [1, 2]"] ;
549 -> 550 ;
551 [label="gini = 0.0\nsamples = 1\nvalue = [1, 0]"] ;
550 -> 551 ;
552 [label="gini = 0.0\nsamples = 2\nvalue = [0, 2]"] ;
550 -> 552 ;
553 [label="industry <= 14.5\ngini = 0.04\nsamples = 987\nvalue = [967, 20]"] ;
549 -> 553 ;
554 [label="employment_type <= 3.5\ngini = 0.009\nsamples = 661\nvalue = [658, 3]"] ;
553 -> 554 ;
555 [label="salary_range <= 17.5\ngini = 0.003\nsamples = 619\nvalue = [618, 1]"] ;
554 -> 555 ;
556 [label="telecommuting <= 0.5\ngini = 0.059\nsamples = 33\nvalue = [32, 1]"] ;
555 -> 556 ;
557 [label="gini = 0.0\nsamples = 29\nvalue = [29, 0]"] ;
556 -> 557 ;
558 [label="required_education <= 2.0\ngini = 0.375\nsamples = 4\nvalue = [3, 1]"] ;
556 -> 558 ;
559 [label="gini = 0.0\nsamples = 3\nvalue = [3, 0]"] ;
558 -> 559 ;
560 [label="gini = 0.0\nsamples = 1\nvalue = [0, 1]"] ;
558 -> 560 ;
561 [label="gini = 0.0\nsamples = 586\nvalue = [586, 0]"] ;
555 -> 561 ;
562 [label="company_profile <= 15.0\ngini = 0.091\nsamples = 42\nvalue = [40, 2]"] ;
554 -> 562 ;
563 [label="requirements <= 2118.5\ngini = 0.48\nsamples = 5\nvalue = [3, 2]"] ;
562 -> 563 ;
564 [label="gini = 0.0\nsamples = 2\nvalue = [2, 0]"] ;
563 -> 564 ;
565 [label="required_experience <= 3.5\ngini = 0.444\nsamples = 3\nvalue = [1, 2]"] ;
563 -> 565 ;
566 [label="gini = 0.0\nsamples = 2\nvalue = [0, 2]"] ;
565 -> 566 ;
567 [label="gini = 0.0\nsamples = 1\nvalue = [1, 0]"] ;
565 -> 567 ;
568 [label="gini = 0.0\nsamples = 37\nvalue = [37, 0]"] ;
562 -> 568 ;
569 [label="industry <= 15.5\ngini = 0.099\nsamples = 326\nvalue = [309, 17]"] ;
553 -> 569 ;
570 [label="benefits <= 168.0\ngini = 0.444\nsamples = 9\nvalue = [3, 6]"] ;
569 -> 570 ;
571 [label="gini = 0.0\nsamples = 3\nvalue = [3, 0]"] ;
570 -> 571 ;
572 [label="gini = 0.0\nsamples = 6\nvalue = [0, 6]"] ;
570 -> 572 ;
573 [label="company_profile <= 1649.0\ngini = 0.067\nsamples = 317\nvalue = [306, 11]"] ;
569 -> 573 ;
574 [label="telecommuting <= 0.5\ngini = 0.061\nsamples = 316\nvalue = [306, 10]"] ;
573 -> 574 ;
575 [label="company_profile <= 1191.0\ngini = 0.046\nsamples = 296\nvalue = [289, 7]"] ;
574 -> 575 ;
576 [label="required_experience <= 5.5\ngini = 0.03\nsamples = 263\nvalue = [259, 4]"] ;
575 -> 576 ;
577 [label="required_education <= 6.5\ngini = 0.016\nsamples = 246\nvalue = [244, 2]"] ;
576 -> 577 ;
578 [label="company_profile <= 865.5\ngini = 0.009\nsamples = 229\nvalue = [228, 1]"] ;
577 -> 578 ;
579 [label="gini = 0.0\nsamples = 204\nvalue = [204, 0]"] ;
578 -> 579 ;
580 [label="description <= 3482.5\ngini = 0.077\nsamples = 25\nvalue = [24, 1]"] ;
578 -> 580 ;
581 [label="gini = 0.0\nsamples = 1\nvalue = [0, 1]"] ;
580 -> 581 ;
582 [label="gini = 0.0\nsamples = 24\nvalue = [24, 0]"] ;
580 -> 582 ;
583 [label="description <= 1686.5\ngini = 0.111\nsamples = 17\nvalue = [16, 1]"] ;
577 -> 583 ;
584 [label="description <= 1028.5\ngini = 0.444\nsamples = 3\nvalue = [2, 1]"] ;
583 -> 584 ;
585 [label="gini = 0.0\nsamples = 2\nvalue = [2, 0]"] ;
584 -> 585 ;
586 [label="gini = 0.0\nsamples = 1\nvalue = [0, 1]"] ;
584 -> 586 ;
587 [label="gini = 0.0\nsamples = 14\nvalue = [14, 0]"] ;
583 -> 587 ;
588 [label="benefits <= 102.5\ngini = 0.208\nsamples = 17\nvalue = [15, 2]"] ;
576 -> 588 ;
589 [label="company_profile <= 225.5\ngini = 0.444\nsamples = 3\nvalue = [1, 2]"] ;
588 -> 589 ;
590 [label="gini = 0.0\nsamples = 1\nvalue = [1, 0]"] ;
589 -> 590 ;
591 [label="gini = 0.0\nsamples = 2\nvalue = [0, 2]"] ;
589 -> 591 ;
592 [label="gini = 0.0\nsamples = 14\nvalue = [14, 0]"] ;
588 -> 592 ;
593 [label="company_profile <= 1208.0\ngini = 0.165\nsamples = 33\nvalue = [30, 3]"] ;
575 -> 593 ;
594 [label="gini = 0.0\nsamples = 1\nvalue = [0, 1]"] ;
593 -> 594 ;
595 [label="function <= 2.5\ngini = 0.117\nsamples = 32\nvalue = [30, 2]"] ;
593 -> 595 ;
596 [label="salary_range <= 505.5\ngini = 0.408\nsamples = 7\nvalue = [5, 2]"] ;
595 -> 596 ;
597 [label="gini = 0.0\nsamples = 5\nvalue = [5, 0]"] ;
596 -> 597 ;
598 [label="gini = 0.0\nsamples = 2\nvalue = [0, 2]"] ;
596 -> 598 ;
599 [label="gini = 0.0\nsamples = 25\nvalue = [25, 0]"] ;
595 -> 599 ;
600 [label="description <= 4624.5\ngini = 0.255\nsamples = 20\nvalue = [17, 3]"] ;
574 -> 600 ;
601 [label="benefits <= 1712.5\ngini = 0.49\nsamples = 7\nvalue = [4, 3]"] ;
600 -> 601 ;
602 [label="gini = 0.0\nsamples = 4\nvalue = [4, 0]"] ;
601 -> 602 ;
603 [label="gini = 0.0\nsamples = 3\nvalue = [0, 3]"] ;
601 -> 603 ;
604 [label="gini = 0.0\nsamples = 13\nvalue = [13, 0]"] ;
600 -> 604 ;
605 [label="gini = 0.0\nsamples = 1\nvalue = [0, 1]"] ;
573 -> 605 ;
606 [label="function <= 2.5\ngini = 0.213\nsamples = 354\nvalue = [311, 43]"] ;
548 -> 606 ;
607 [label="description <= 6497.5\ngini = 0.459\nsamples = 73\nvalue = [47, 26]"] ;
606 -> 607 ;
608 [label="requirements <= 3036.5\ngini = 0.494\nsamples = 47\nvalue = [21, 26]"] ;
607 -> 608 ;
609 [label="industry <= 18.0\ngini = 0.417\nsamples = 27\nvalue = [19, 8]"] ;
608 -> 609 ;
610 [label="gini = 0.0\nsamples = 13\nvalue = [13, 0]"] ;
609 -> 610 ;
611 [label="industry <= 35.5\ngini = 0.49\nsamples = 14\nvalue = [6, 8]"] ;
609 -> 611 ;
612 [label="gini = 0.0\nsamples = 7\nvalue = [0, 7]"] ;
611 -> 612 ;
613 [label="description <= 1258.0\ngini = 0.245\nsamples = 7\nvalue = [6, 1]"] ;
611 -> 613 ;
614 [label="gini = 0.0\nsamples = 1\nvalue = [0, 1]"] ;
613 -> 614 ;
615 [label="gini = 0.0\nsamples = 6\nvalue = [6, 0]"] ;
613 -> 615 ;
616 [label="salary_range <= 312.5\ngini = 0.18\nsamples = 20\nvalue = [2, 18]"] ;
608 -> 616 ;
617 [label="gini = 0.0\nsamples = 17\nvalue = [0, 17]"] ;
616 -> 617 ;
618 [label="requirements <= 4742.5\ngini = 0.444\nsamples = 3\nvalue = [2, 1]"] ;
616 -> 618 ;
619 [label="gini = 0.0\nsamples = 2\nvalue = [2, 0]"] ;
618 -> 619 ;
620 [label="gini = 0.0\nsamples = 1\nvalue = [0, 1]"] ;
618 -> 620 ;
621 [label="gini = 0.0\nsamples = 26\nvalue = [26, 0]"] ;
607 -> 621 ;
622 [label="description <= 838.0\ngini = 0.114\nsamples = 281\nvalue = [264, 17]"] ;
606 -> 622 ;
623 [label="benefits <= 128.5\ngini = 0.32\nsamples = 5\nvalue = [1, 4]"] ;
622 -> 623 ;
624 [label="gini = 0.0\nsamples = 1\nvalue = [1, 0]"] ;
623 -> 624 ;
625 [label="gini = 0.0\nsamples = 4\nvalue = [0, 4]"] ;
623 -> 625 ;
626 [label="industry <= 87.0\ngini = 0.09\nsamples = 276\nvalue = [263, 13]"] ;
622 -> 626 ;
627 [label="department <= 105.0\ngini = 0.065\nsamples = 267\nvalue = [258, 9]"] ;
626 -> 627 ;
628 [label="gini = 0.0\nsamples = 1\nvalue = [0, 1]"] ;
627 -> 628 ;
629 [label="location <= 2927.5\ngini = 0.058\nsamples = 266\nvalue = [258, 8]"] ;
627 -> 629 ;
630 [label="title <= 911.5\ngini = 0.052\nsamples = 264\nvalue = [257, 7]"] ;
629 -> 630 ;
631 [label="industry <= 13.0\ngini = 0.26\nsamples = 26\nvalue = [22, 4]"] ;
630 -> 631 ;
632 [label="gini = 0.0\nsamples = 18\nvalue = [18, 0]"] ;
631 -> 632 ;
633 [label="required_education <= 1.5\ngini = 0.5\nsamples = 8\nvalue = [4, 4]"] ;
631 -> 633 ;
634 [label="gini = 0.0\nsamples = 3\nvalue = [0, 3]"] ;
633 -> 634 ;
635 [label="location <= 996.0\ngini = 0.32\nsamples = 5\nvalue = [4, 1]"] ;
633 -> 635 ;
636 [label="gini = 0.0\nsamples = 4\nvalue = [4, 0]"] ;
635 -> 636 ;
637 [label="gini = 0.0\nsamples = 1\nvalue = [0, 1]"] ;
635 -> 637 ;
638 [label="function <= 23.5\ngini = 0.025\nsamples = 238\nvalue = [235, 3]"] ;
630 -> 638 ;
639 [label="industry <= 25.0\ngini = 0.01\nsamples = 201\nvalue = [200, 1]"] ;
638 -> 639 ;
640 [label="gini = 0.0\nsamples = 173\nvalue = [173, 0]"] ;
639 -> 640 ;
641 [label="industry <= 28.5\ngini = 0.069\nsamples = 28\nvalue = [27, 1]"] ;
639 -> 641 ;
642 [label="gini = 0.0\nsamples = 1\nvalue = [0, 1]"] ;
641 -> 642 ;
643 [label="gini = 0.0\nsamples = 27\nvalue = [27, 0]"] ;
641 -> 643 ;
644 [label="salary_range <= 35.5\ngini = 0.102\nsamples = 37\nvalue = [35, 2]"] ;
638 -> 644 ;
645 [label="function <= 31.5\ngini = 0.5\nsamples = 2\nvalue = [1, 1]"] ;
644 -> 645 ;
646 [label="gini = 0.0\nsamples = 1\nvalue = [0, 1]"] ;
645 -> 646 ;
647 [label="gini = 0.0\nsamples = 1\nvalue = [1, 0]"] ;
645 -> 647 ;
648 [label="required_education <= 4.5\ngini = 0.056\nsamples = 35\nvalue = [34, 1]"] ;
644 -> 648 ;
649 [label="gini = 0.0\nsamples = 30\nvalue = [30, 0]"] ;
648 -> 649 ;
650 [label="salary_range <= 170.0\ngini = 0.32\nsamples = 5\nvalue = [4, 1]"] ;
648 -> 650 ;
651 [label="gini = 0.0\nsamples = 1\nvalue = [0, 1]"] ;
650 -> 651 ;
652 [label="gini = 0.0\nsamples = 4\nvalue = [4, 0]"] ;
650 -> 652 ;
653 [label="company_profile <= 1671.5\ngini = 0.5\nsamples = 2\nvalue = [1, 1]"] ;
629 -> 653 ;
654 [label="gini = 0.0\nsamples = 1\nvalue = [0, 1]"] ;
653 -> 654 ;
655 [label="gini = 0.0\nsamples = 1\nvalue = [1, 0]"] ;
653 -> 655 ;
656 [label="has_questions <= 0.5\ngini = 0.494\nsamples = 9\nvalue = [5, 4]"] ;
626 -> 656 ;
657 [label="gini = 0.0\nsamples = 4\nvalue = [0, 4]"] ;
656 -> 657 ;
658 [label="gini = 0.0\nsamples = 5\nvalue = [5, 0]"] ;
656 -> 658 ;
659 [label="gini = 0.0\nsamples = 28\nvalue = [0, 28]"] ;
1 -> 659 ;
660 [label="description <= 14760.0\ngini = 0.26\nsamples = 189\nvalue = [29, 160]"] ;
0 -> 660 [labeldistance=2.5, labelangle=-45, headlabel="False"] ;
661 [label="description <= 14551.0\ngini = 0.024\nsamples = 162\nvalue = [2, 160]"] ;
660 -> 661 ;
662 [label="title <= 11032.5\ngini = 0.408\nsamples = 7\nvalue = [2, 5]"] ;
661 -> 662 ;
663 [label="gini = 0.0\nsamples = 5\nvalue = [0, 5]"] ;
662 -> 663 ;
664 [label="gini = 0.0\nsamples = 2\nvalue = [2, 0]"] ;
662 -> 664 ;
665 [label="gini = 0.0\nsamples = 155\nvalue = [0, 155]"] ;
661 -> 665 ;
666 [label="gini = 0.0\nsamples = 27\nvalue = [27, 0]"] ;
660 -> 666 ;
}
